<?xml version="1.0"?>
<opencv_storage>
<cascade>
  <stageType>BOOST</stageType>
  <featureType>HAAR</featureType>
  <height>24</height>
  <width>24</width>
  <stageParams>
    <boostType>GAB</boostType>
    <minHitRate>9.9599999189376831e-01</minHitRate>
    <maxFalseAlarm>5.0000000000000000e-01</maxFalseAlarm>
    <weightTrimRate>9.4999999999999996e-01</weightTrimRate>
    <maxDepth>1</maxDepth>
    <maxWeakCount>100</maxWeakCount></stageParams>
  <featureParams>
    <maxCatCount>0</maxCatCount>
    <featSize>1</featSize>
    <mode>ALL</mode></featureParams>
  <stageNum>11</stageNum>
  <stages>
    <!-- stage 0 -->
    <_>
      <maxWeakCount>6</maxWeakCount>
      <stageThreshold>-1.5430381298065186e+00</stageThreshold>
      <weakClassifiers>
        <_>
          <internalNodes>
            0 -1 46 2.1878704428672791e-02</internalNodes>
          <leafValues>
            -7.5111109018325806e-01 6.5714287757873535e-01</leafValues></_>
        <_>
          <internalNodes>
            0 -1 58 -4.2157344520092010e-02</internalNodes>
          <leafValues>
            5.7942301034927368e-01 -4.5076632499694824e-01</leafValues></_>
        <_>
          <internalNodes>
            0 -1 20 -1.4554640278220177e-02</internalNodes>
          <leafValues>
            5.3248053789138794e-01 -4.6022233366966248e-01</leafValues></_>
        <_>
          <internalNodes>
            0 -1 56 -2.9808711260557175e-03</internalNodes>
          <leafValues>
            6.3584989309310913e-01 -3.6094498634338379e-01</leafValues></_>
        <_>
          <internalNodes>
            0 -1 48 1.7445899546146393e-02</internalNodes>
          <leafValues>
            -2.8980490565299988e-01 6.5238642692565918e-01</leafValues></_>
        <_>
          <internalNodes>
            0 -1 41 -1.6738843172788620e-02</internalNodes>
          <leafValues>
            6.9549667835235596e-01 -2.6037776470184326e-01</leafValues></_></weakClassifiers></_>
    <!-- stage 1 -->
    <_>
      <maxWeakCount>6</maxWeakCount>
      <stageThreshold>-1.0268118381500244e+00</stageThreshold>
      <weakClassifiers>
        <_>
          <internalNodes>
            0 -1 53 -2.8724155854433775e-03</internalNodes>
          <leafValues>
            1. -7.0212763547897339e-01</leafValues></_>
        <_>
          <internalNodes>
            0 -1 42 1.6744017601013184e-02</internalNodes>
          <leafValues>
            -4.3131506443023682e-01 6.3414222002029419e-01</leafValues></_>
        <_>
          <internalNodes>
            0 -1 24 -4.2720507830381393e-02</internalNodes>
          <leafValues>
            6.0076677799224854e-01 -3.8714042305946350e-01</leafValues></_>
        <_>
          <internalNodes>
            0 -1 32 -5.2511561661958694e-03</internalNodes>
          <leafValues>
            6.3164401054382324e-01 -2.7959880232810974e-01</leafValues></_>
        <_>
          <internalNodes>
            0 -1 66 -4.5230888645164669e-04</internalNodes>
          <leafValues>
            -8.5473245382308960e-01 2.2394019365310669e-01</leafValues></_>
        <_>
          <internalNodes>
            0 -1 28 -5.3385612554848194e-03</internalNodes>
          <leafValues>
            5.9912878274917603e-01 -2.7104741334915161e-01</leafValues></_></weakClassifiers></_>
    <!-- stage 2 -->
    <_>
      <maxWeakCount>7</maxWeakCount>
      <stageThreshold>-1.2573516368865967e+00</stageThreshold>
      <weakClassifiers>
        <_>
          <internalNodes>
            0 -1 55 4.3730698525905609e-02</internalNodes>
          <leafValues>
            -7.5576037168502808e-01 2.5490197539329529e-01</leafValues></_>
        <_>
          <internalNodes>
            0 -1 52 -1.1102629825472832e-02</internalNodes>
          <leafValues>
            5.3457832336425781e-01 -4.4896772503852844e-01</leafValues></_>
        <_>
          <internalNodes>
            0 -1 57 -1.1517196893692017e-02</internalNodes>
          <leafValues>
            5.5590236186981201e-01 -2.9735916852951050e-01</leafValues></_>
        <_>
          <internalNodes>
            0 -1 4 -6.8535078316926956e-03</internalNodes>
          <leafValues>
            -7.5494498014450073e-01 2.4104720354080200e-01</leafValues></_>
        <_>
          <internalNodes>
            0 -1 18 3.9584957994520664e-03</internalNodes>
          <leafValues>
            2.2492612898349762e-01 -7.6538598537445068e-01</leafValues></_>
        <_>
          <internalNodes>
            0 -1 26 3.7279925309121609e-03</internalNodes>
          <leafValues>
            -3.0096241831779480e-01 6.5376603603363037e-01</leafValues></_>
        <_>
          <internalNodes>
            0 -1 14 7.0971250534057617e-04</internalNodes>
          <leafValues>
            2.2245535254478455e-01 -8.6474710702896118e-01</leafValues></_></weakClassifiers></_>
    <!-- stage 3 -->
    <_>
      <maxWeakCount>5</maxWeakCount>
      <stageThreshold>-9.5064520835876465e-01</stageThreshold>
      <weakClassifiers>
        <_>
          <internalNodes>
            0 -1 49 -2.6899702847003937e-02</internalNodes>
          <leafValues>
            2.2727273404598236e-01 -7.3696142435073853e-01</leafValues></_>
        <_>
          <internalNodes>
            0 -1 54 9.6932873129844666e-03</internalNodes>
          <leafValues>
            -4.0347772836685181e-01 5.4957979917526245e-01</leafValues></_>
        <_>
          <internalNodes>
            0 -1 2 -2.9244279721751809e-04</internalNodes>
          <leafValues>
            -6.2596076726913452e-01 2.5183779001235962e-01</leafValues></_>
        <_>
          <internalNodes>
            0 -1 13 -3.1741373240947723e-03</internalNodes>
          <leafValues>
            -9.1196256875991821e-01 1.3340611755847931e-01</leafValues></_>
        <_>
          <internalNodes>
            0 -1 23 3.0215308070182800e-02</internalNodes>
          <leafValues>
            -1.9544993340969086e-01 7.5413805246353149e-01</leafValues></_></weakClassifiers></_>
    <!-- stage 4 -->
    <_>
      <maxWeakCount>7</maxWeakCount>
      <stageThreshold>-1.4884796142578125e+00</stageThreshold>
      <weakClassifiers>
        <_>
          <internalNodes>
            0 -1 33 -2.4754699319601059e-02</internalNodes>
          <leafValues>
            2.6315790414810181e-01 -7.2706937789916992e-01</leafValues></_>
        <_>
          <internalNodes>
            0 -1 44 -2.1048093214631081e-02</internalNodes>
          <leafValues>
            3.5156863927841187e-01 -4.6116632223129272e-01</leafValues></_>
        <_>
          <internalNodes>
            0 -1 7 -3.6243181675672531e-02</internalNodes>
          <leafValues>
            5.9744864702224731e-01 -2.5745955109596252e-01</leafValues></_>
        <_>
          <internalNodes>
            0 -1 29 3.2895796000957489e-02</internalNodes>
          <leafValues>
            -2.2686143219470978e-01 6.6980952024459839e-01</leafValues></_>
        <_>
          <internalNodes>
            0 -1 63 1.6193424817174673e-03</internalNodes>
          <leafValues>
            2.1535809338092804e-01 -8.5538119077682495e-01</leafValues></_>
        <_>
          <internalNodes>
            0 -1 35 5.0564680714160204e-04</internalNodes>
          <leafValues>
            2.3554377257823944e-01 -6.6545814275741577e-01</leafValues></_>
        <_>
          <internalNodes>
            0 -1 30 5.9705260209739208e-03</internalNodes>
          <leafValues>
            -2.6682487130165100e-01 6.8282246589660645e-01</leafValues></_></weakClassifiers></_>
    <!-- stage 5 -->
    <_>
      <maxWeakCount>4</maxWeakCount>
      <stageThreshold>-8.6849284172058105e-01</stageThreshold>
      <weakClassifiers>
        <_>
          <internalNodes>
            0 -1 3 1.5806250274181366e-01</internalNodes>
          <leafValues>
            -6.9787234067916870e-01 8.6666667461395264e-01</leafValues></_>
        <_>
          <internalNodes>
            0 -1 22 2.2612791508436203e-03</internalNodes>
          <leafValues>
            5.8973569422960281e-02 -8.5905367136001587e-01</leafValues></_>
        <_>
          <internalNodes>
            0 -1 1 1.1424473486840725e-03</internalNodes>
          <leafValues>
            2.0791055262088776e-01 -7.0784848928451538e-01</leafValues></_>
        <_>
          <internalNodes>
            0 -1 12 9.0348143130540848e-03</internalNodes>
          <leafValues>
            -3.3029612898826599e-01 4.8052260279655457e-01</leafValues></_></weakClassifiers></_>
    <!-- stage 6 -->
    <_>
      <maxWeakCount>6</maxWeakCount>
      <stageThreshold>-1.1124473810195923e+00</stageThreshold>
      <weakClassifiers>
        <_>
          <internalNodes>
            0 -1 61 1.4922842383384705e-03</internalNodes>
          <leafValues>
            -7.7339899539947510e-01 -1.2658228166401386e-02</leafValues></_>
        <_>
          <internalNodes>
            0 -1 25 4.0086060762405396e-03</internalNodes>
          <leafValues>
            -4.3925663828849792e-01 4.4834733009338379e-01</leafValues></_>
        <_>
          <internalNodes>
            0 -1 34 2.6301236357539892e-03</internalNodes>
          <leafValues>
            -3.2212904095649719e-01 5.1288723945617676e-01</leafValues></_>
        <_>
          <internalNodes>
            0 -1 19 -9.0720076113939285e-03</internalNodes>
          <leafValues>
            6.9987767934799194e-01 -2.5027561187744141e-01</leafValues></_>
        <_>
          <internalNodes>
            0 -1 31 3.1560356728732586e-03</internalNodes>
          <leafValues>
            -2.6336723566055298e-01 5.5328112840652466e-01</leafValues></_>
        <_>
          <internalNodes>
            0 -1 5 -6.1081368476152420e-03</internalNodes>
          <leafValues>
            -6.4140903949737549e-01 2.6605099439620972e-01</leafValues></_></weakClassifiers></_>
    <!-- stage 7 -->
    <_>
      <maxWeakCount>8</maxWeakCount>
      <stageThreshold>-1.1696842908859253e+00</stageThreshold>
      <weakClassifiers>
        <_>
          <internalNodes>
            0 -1 37 4.0151640772819519e-02</internalNodes>
          <leafValues>
            -6.9957083463668823e-01 5.7894736528396606e-01</leafValues></_>
        <_>
          <internalNodes>
            0 -1 47 -2.9662707675015554e-05</internalNodes>
          <leafValues>
            1.8583379685878754e-01 -5.3621518611907959e-01</leafValues></_>
        <_>
          <internalNodes>
            0 -1 15 1.0343018220737576e-04</internalNodes>
          <leafValues>
            -4.7381070256233215e-01 2.8904947638511658e-01</leafValues></_>
        <_>
          <internalNodes>
            0 -1 60 -4.5880980789661407e-02</internalNodes>
          <leafValues>
            6.8834710121154785e-01 -2.1343173086643219e-01</leafValues></_>
        <_>
          <internalNodes>
            0 -1 62 5.3394264541566372e-03</internalNodes>
          <leafValues>
            -2.8715014457702637e-01 4.5316022634506226e-01</leafValues></_>
        <_>
          <internalNodes>
            0 -1 5 1.0216739028692245e-02</internalNodes>
          <leafValues>
            2.1875284612178802e-01 -7.7204650640487671e-01</leafValues></_>
        <_>
          <internalNodes>
            0 -1 51 1.2532638385891914e-02</internalNodes>
          <leafValues>
            -2.6132324337959290e-01 6.4939397573471069e-01</leafValues></_>
        <_>
          <internalNodes>
            0 -1 40 6.8725179880857468e-03</internalNodes>
          <leafValues>
            -2.9921260476112366e-01 5.4253709316253662e-01</leafValues></_></weakClassifiers></_>
    <!-- stage 8 -->
    <_>
      <maxWeakCount>6</maxWeakCount>
      <stageThreshold>-1.4000694751739502e+00</stageThreshold>
      <weakClassifiers>
        <_>
          <internalNodes>
            0 -1 16 6.8575918674468994e-02</internalNodes>
          <leafValues>
            -6.9658118486404419e-01 6.4705884456634521e-01</leafValues></_>
        <_>
          <internalNodes>
            0 -1 0 -3.6804919363930821e-04</internalNodes>
          <leafValues>
            -9.0017342567443848e-01 4.6146940439939499e-03</leafValues></_>
        <_>
          <internalNodes>
            0 -1 59 -2.4145324714481831e-03</internalNodes>
          <leafValues>
            -9.1683059930801392e-01 1.0143935680389404e-01</leafValues></_>
        <_>
          <internalNodes>
            0 -1 9 1.9321588333696127e-03</internalNodes>
          <leafValues>
            1.5348526835441589e-01 -6.4969009160995483e-01</leafValues></_>
        <_>
          <internalNodes>
            0 -1 50 2.0529981702566147e-02</internalNodes>
          <leafValues>
            -2.3568403720855713e-01 5.2641946077346802e-01</leafValues></_>
        <_>
          <internalNodes>
            0 -1 8 5.5994512513279915e-04</internalNodes>
          <leafValues>
            1.7744453251361847e-01 -7.6154911518096924e-01</leafValues></_></weakClassifiers></_>
    <!-- stage 9 -->
    <_>
      <maxWeakCount>6</maxWeakCount>
      <stageThreshold>-1.1283633708953857e+00</stageThreshold>
      <weakClassifiers>
        <_>
          <internalNodes>
            0 -1 27 -1.3939198106527328e-02</internalNodes>
          <leafValues>
            2.9411765933036804e-01 -7.2062087059020996e-01</leafValues></_>
        <_>
          <internalNodes>
            0 -1 36 5.7886713184416294e-03</internalNodes>
          <leafValues>
            -3.7107723951339722e-01 4.5863685011863708e-01</leafValues></_>
        <_>
          <internalNodes>
            0 -1 21 4.0865512564778328e-03</internalNodes>
          <leafValues>
            -2.3353645205497742e-01 5.6514859199523926e-01</leafValues></_>
        <_>
          <internalNodes>
            0 -1 10 -6.1541208997368813e-03</internalNodes>
          <leafValues>
            4.1828307509422302e-01 -3.1087526679039001e-01</leafValues></_>
        <_>
          <internalNodes>
            0 -1 39 -5.7810217142105103e-02</internalNodes>
          <leafValues>
            4.4194692373275757e-01 -2.9231053590774536e-01</leafValues></_>
        <_>
          <internalNodes>
            0 -1 64 -1.1877263023052365e-04</internalNodes>
          <leafValues>
            -6.6335880756378174e-01 1.9559234380722046e-01</leafValues></_></weakClassifiers></_>
    <!-- stage 10 -->
    <_>
      <maxWeakCount>7</maxWeakCount>
      <stageThreshold>-1.1633777618408203e+00</stageThreshold>
      <weakClassifiers>
        <_>
          <internalNodes>
            0 -1 6 2.1446499228477478e-01</internalNodes>
          <leafValues>
            -7.2460496425628662e-01 1.4285714924335480e-01</leafValues></_>
        <_>
          <internalNodes>
            0 -1 38 -1.4721110346727073e-04</internalNodes>
          <leafValues>
            -6.2603271007537842e-01 6.5707154572010040e-02</leafValues></_>
        <_>
          <internalNodes>
            0 -1 65 2.5970924180001020e-03</internalNodes>
          <leafValues>
            1.0043530166149139e-01 -9.0900218486785889e-01</leafValues></_>
        <_>
          <internalNodes>
            0 -1 43 2.1497751586139202e-03</internalNodes>
          <leafValues>
            1.8559977412223816e-01 -6.7508125305175781e-01</leafValues></_>
        <_>
          <internalNodes>
            0 -1 45 -5.1567805930972099e-03</internalNodes>
          <leafValues>
            5.3347200155258179e-01 -2.6876786351203918e-01</leafValues></_>
        <_>
          <internalNodes>
            0 -1 11 -4.6702127903699875e-02</internalNodes>
          <leafValues>
            5.5749499797821045e-01 -2.2138461470603943e-01</leafValues></_>
        <_>
          <internalNodes>
            0 -1 17 5.0632390193641186e-03</internalNodes>
          <leafValues>
            -2.1856103837490082e-01 6.7400693893432617e-01</leafValues></_></weakClassifiers></_></stages>
  <features>
    <_>
      <rects>
        <_>
          0 0 1 2 -1.</_>
        <_>
          0 1 1 1 2.</_></rects>
      <tilted>0</tilted></_>
    <_>
      <rects>
        <_>
          0 0 2 3 -1.</_>
        <_>
          0 1 2 1 3.</_></rects>
      <tilted>0</tilted></_>
    <_>
      <rects>
        <_>
          0 0 3 3 -1.</_>
        <_>
          0 1 3 1 3.</_></rects>
      <tilted>0</tilted></_>
    <_>
      <rects>
        <_>
          0 0 24 3 -1.</_>
        <_>
          8 1 8 1 9.</_></rects>
      <tilted>0</tilted></_>
    <_>
      <rects>
        <_>
          0 0 20 1 -1.</_>
        <_>
          10 0 10 1 2.</_></rects>
      <tilted>0</tilted></_>
    <_>
      <rects>
        <_>
          0 0 24 1 -1.</_>
        <_>
          12 0 12 1 2.</_></rects>
      <tilted>0</tilted></_>
    <_>
      <rects>
        <_>
          0 1 24 12 -1.</_>
        <_>
          6 1 12 12 2.</_></rects>
      <tilted>0</tilted></_>
    <_>
      <rects>
        <_>
          0 3 12 7 -1.</_>
        <_>
          4 3 4 7 3.</_></rects>
      <tilted>0</tilted></_>
    <_>
      <rects>
        <_>
          0 9 1 3 -1.</_>
        <_>
          0 10 1 1 3.</_></rects>
      <tilted>0</tilted></_>
    <_>
      <rects>
        <_>
          0 14 1 6 -1.</_>
        <_>
          0 17 1 3 2.</_></rects>
      <tilted>0</tilted></_>
    <_>
      <rects>
        <_>
          1 0 8 5 -1.</_>
        <_>
          3 0 4 5 2.</_></rects>
      <tilted>0</tilted></_>
    <_>
      <rects>
        <_>
          1 2 6 17 -1.</_>
        <_>
          4 2 3 17 2.</_></rects>
      <tilted>0</tilted></_>
    <_>
      <rects>
        <_>
          1 9 14 4 -1.</_>
        <_>
          1 11 14 2 2.</_></rects>
      <tilted>0</tilted></_>
    <_>
      <rects>
        <_>
          1 13 2 4 -1.</_>
        <_>
          1 15 2 2 2.</_></rects>
      <tilted>0</tilted></_>
    <_>
      <rects>
        <_>
          1 15 1 3 -1.</_>
        <_>
          1 16 1 1 3.</_></rects>
      <tilted>0</tilted></_>
    <_>
      <rects>
        <_>
          1 20 4 1 -1.</_>
        <_>
          2 20 2 1 2.</_></rects>
      <tilted>0</tilted></_>
    <_>
      <rects>
        <_>
          3 0 16 4 -1.</_>
        <_>
          3 2 16 2 2.</_></rects>
      <tilted>0</tilted></_>
    <_>
      <rects>
        <_>
          3 6 2 11 -1.</_>
        <_>
          4 6 1 11 2.</_></rects>
      <tilted>0</tilted></_>
    <_>
      <rects>
        <_>
          4 0 18 1 -1.</_>
        <_>
          13 0 9 1 2.</_></rects>
      <tilted>0</tilted></_>
    <_>
      <rects>
        <_>
          4 11 15 4 -1.</_>
        <_>
          4 12 15 2 2.</_></rects>
      <tilted>0</tilted></_>
    <_>
      <rects>
        <_>
          4 16 15 8 -1.</_>
        <_>
          4 18 15 4 2.</_></rects>
      <tilted>0</tilted></_>
    <_>
      <rects>
        <_>
          6 0 1 6 -1.</_>
        <_>
          6 2 1 2 3.</_></rects>
      <tilted>0</tilted></_>
    <_>
      <rects>
        <_>
          6 0 8 1 -1.</_>
        <_>
          8 0 4 1 2.</_></rects>
      <tilted>0</tilted></_>
    <_>
      <rects>
        <_>
          6 0 6 3 -1.</_>
        <_>
          8 2 2 3 3.</_></rects>
      <tilted>1</tilted></_>
    <_>
      <rects>
        <_>
          6 1 11 8 -1.</_>
        <_>
          6 5 11 4 2.</_></rects>
      <tilted>0</tilted></_>
    <_>
      <rects>
        <_>
          7 0 4 4 -1.</_>
        <_>
          7 1 4 2 2.</_></rects>
      <tilted>0</tilted></_>
    <_>
      <rects>
        <_>
          7 7 2 5 -1.</_>
        <_>
          8 7 1 5 2.</_></rects>
      <tilted>0</tilted></_>
    <_>
      <rects>
        <_>
          7 9 9 4 -1.</_>
        <_>
          7 10 9 2 2.</_></rects>
      <tilted>0</tilted></_>
    <_>
      <rects>
        <_>
          7 11 4 7 -1.</_>
        <_>
          8 11 2 7 2.</_></rects>
      <tilted>0</tilted></_>
    <_>
      <rects>
        <_>
          8 0 6 8 -1.</_>
        <_>
          10 2 2 8 3.</_></rects>
      <tilted>1</tilted></_>
    <_>
      <rects>
        <_>
          8 0 9 3 -1.</_>
        <_>
          8 1 9 1 3.</_></rects>
      <tilted>0</tilted></_>
    <_>
      <rects>
        <_>
          8 10 4 1 -1.</_>
        <_>
          9 11 2 1 2.</_></rects>
      <tilted>1</tilted></_>
    <_>
      <rects>
        <_>
          9 11 3 9 -1.</_>
        <_>
          10 11 1 9 3.</_></rects>
      <tilted>0</tilted></_>
    <_>
      <rects>
        <_>
          9 11 2 8 -1.</_>
        <_>
          9 15 2 4 2.</_></rects>
      <tilted>0</tilted></_>
    <_>
      <rects>
        <_>
          9 12 14 3 -1.</_>
        <_>
          9 13 14 1 3.</_></rects>
      <tilted>0</tilted></_>
    <_>
      <rects>
        <_>
          10 0 4 2 -1.</_>
        <_>
          12 0 2 2 2.</_></rects>
      <tilted>0</tilted></_>
    <_>
      <rects>
        <_>
          10 13 2 6 -1.</_>
        <_>
          10 15 2 2 3.</_></rects>
      <tilted>0</tilted></_>
    <_>
      <rects>
        <_>
          11 0 10 4 -1.</_>
        <_>
          11 2 10 2 2.</_></rects>
      <tilted>0</tilted></_>
    <_>
      <rects>
        <_>
          11 1 2 1 -1.</_>
        <_>
          12 1 1 1 2.</_></rects>
      <tilted>0</tilted></_>
    <_>
      <rects>
        <_>
          11 8 9 6 -1.</_>
        <_>
          14 11 3 6 3.</_></rects>
      <tilted>1</tilted></_>
    <_>
      <rects>
        <_>
          11 8 5 3 -1.</_>
        <_>
          10 9 5 1 3.</_></rects>
      <tilted>1</tilted></_>
    <_>
      <rects>
        <_>
          11 9 12 3 -1.</_>
        <_>
          14 9 6 3 2.</_></rects>
      <tilted>0</tilted></_>
    <_>
      <rects>
        <_>
          11 10 4 12 -1.</_>
        <_>
          11 10 2 6 2.</_>
        <_>
          13 16 2 6 2.</_></rects>
      <tilted>0</tilted></_>
    <_>
      <rects>
        <_>
          12 0 9 1 -1.</_>
        <_>
          15 0 3 1 3.</_></rects>
      <tilted>0</tilted></_>
    <_>
      <rects>
        <_>
          12 3 7 9 -1.</_>
        <_>
          12 6 7 3 3.</_></rects>
      <tilted>0</tilted></_>
    <_>
      <rects>
        <_>
          12 6 4 6 -1.</_>
        <_>
          13 6 2 6 2.</_></rects>
      <tilted>0</tilted></_>
    <_>
      <rects>
        <_>
          12 7 4 6 -1.</_>
        <_>
          13 8 2 6 2.</_></rects>
      <tilted>1</tilted></_>
    <_>
      <rects>
        <_>
          13 1 4 2 -1.</_>
        <_>
          13 2 4 1 2.</_></rects>
      <tilted>0</tilted></_>
    <_>
      <rects>
        <_>
          13 8 6 12 -1.</_>
        <_>
          15 8 2 12 3.</_></rects>
      <tilted>0</tilted></_>
    <_>
      <rects>
        <_>
          13 11 4 7 -1.</_>
        <_>
          14 12 2 7 2.</_></rects>
      <tilted>1</tilted></_>
    <_>
      <rects>
        <_>
          14 3 6 20 -1.</_>
        <_>
          16 3 2 20 3.</_></rects>
      <tilted>0</tilted></_>
    <_>
      <rects>
        <_>
          14 6 4 4 -1.</_>
        <_>
          13 7 4 2 2.</_></rects>
      <tilted>1</tilted></_>
    <_>
      <rects>
        <_>
          14 6 5 4 -1.</_>
        <_>
          13 7 5 2 2.</_></rects>
      <tilted>1</tilted></_>
    <_>
      <rects>
        <_>
          14 8 1 3 -1.</_>
        <_>
          14 9 1 1 3.</_></rects>
      <tilted>0</tilted></_>
    <_>
      <rects>
        <_>
          15 0 3 6 -1.</_>
        <_>
          15 2 3 2 3.</_></rects>
      <tilted>0</tilted></_>
    <_>
      <rects>
        <_>
          15 5 7 6 -1.</_>
        <_>
          13 7 7 2 3.</_></rects>
      <tilted>1</tilted></_>
    <_>
      <rects>
        <_>
          15 6 3 11 -1.</_>
        <_>
          16 6 1 11 3.</_></rects>
      <tilted>0</tilted></_>
    <_>
      <rects>
        <_>
          15 7 4 7 -1.</_>
        <_>
          16 8 2 7 2.</_></rects>
      <tilted>1</tilted></_>
    <_>
      <rects>
        <_>
          15 9 2 12 -1.</_>
        <_>
          11 13 2 4 3.</_></rects>
      <tilted>1</tilted></_>
    <_>
      <rects>
        <_>
          16 22 8 2 -1.</_>
        <_>
          16 23 8 1 2.</_></rects>
      <tilted>0</tilted></_>
    <_>
      <rects>
        <_>
          17 3 6 16 -1.</_>
        <_>
          20 3 3 16 2.</_></rects>
      <tilted>0</tilted></_>
    <_>
      <rects>
        <_>
          17 5 2 4 -1.</_>
        <_>
          17 5 1 2 2.</_>
        <_>
          18 7 1 2 2.</_></rects>
      <tilted>0</tilted></_>
    <_>
      <rects>
        <_>
          17 18 4 6 -1.</_>
        <_>
          19 18 2 6 2.</_></rects>
      <tilted>0</tilted></_>
    <_>
      <rects>
        <_>
          19 12 5 3 -1.</_>
        <_>
          19 13 5 1 3.</_></rects>
      <tilted>0</tilted></_>
    <_>
      <rects>
        <_>
          19 19 2 1 -1.</_>
        <_>
          20 19 1 1 2.</_></rects>
      <tilted>0</tilted></_>
    <_>
      <rects>
        <_>
          20 10 4 3 -1.</_>
        <_>
          20 11 4 1 3.</_></rects>
      <tilted>0</tilted></_>
    <_>
      <rects>
        <_>
          20 20 1 2 -1.</_>
        <_>
          20 21 1 1 2.</_></rects>
      <tilted>0</tilted></_></features></cascade>
</opencv_storage>
